net 
{
    node_size = (76 36);
}

node Cytology
{
    label = "Endometrium in cervical cytology";
    position = (77 428);
    states = ("no"  "yes");
    ismapvariable = "false";
    excludepolicy = "include whole CPT";
}

node MyometrialInvasion
{
    label = "Myometrial invasion";
    position = (75 576);
    states = ("no"  "lt_50"  "ge_50");
    ismapvariable = "false";
    excludepolicy = "include whole CPT";
}

node PrimaryTumor
{
    label = "Preoperative grade";
    position = (77 288);
    states = ("grade_1"  "grade_2"  "grade_3");
    ismapvariable = "false";
    excludepolicy = "include whole CPT";
}

node Histology
{
    label = "Postoperative grade";
    position = (287 383);
    states = ("grade_1"  "grade_2"  "grade_3");
    ismapvariable = "false";
    excludepolicy = "include whole CPT";
}

node Therapy
{
    label = "Adjuvant therapy";
    position = (174 192);
    states = ("no"  "radiotx"  "chemotx"  "chemoradiotx");
    ismapvariable = "false";
    excludepolicy = "include whole CPT";
}

node LVSI
{
    label = "LVSI";
    position = (483 223);
    states = ("no"  "yes");
    ismapvariable = "false";
    excludepolicy = "include whole CPT";
}

node LNM
{
    label = "Lymph node metastasis";
    position = (640 380);
    states = ("no"  "yes");
    ismapvariable = "false";
    excludepolicy = "include whole CPT";
}

node CA125
{
    label = "CA125";
    position = (897 313);
    states = ("lt_35"  "ge_35");
    ismapvariable = "false";
    excludepolicy = "include whole CPT";
}

node Recurrence
{
    label = "Recurrence";
    position = (804 208);
    states = ("no"  "regional_distant"  "local");
    ismapvariable = "false";
    excludepolicy = "include whole CPT";
}

node Survival5yr
{
    label = "Survival 5yr";
    position = (903 -18);
    states = ("yes"  "no");
    ismapvariable = "false";
    excludepolicy = "include whole CPT";
}

node Platelets
{
    label = "Platelets";
    position = (896 512);
    states = ("lt_400"  "ge_400");
    ismapvariable = "false";
    excludepolicy = "include whole CPT";
}

node ER
{
    label = "Estrogen receptor";
    position = (894 601);
    states = ("positive"  "negative");
    ismapvariable = "false";
    excludepolicy = "include whole CPT";
}

node CTMRI
{
    label = "Enlarged nodes CT";
    position = (896 429);
    states = ("no"  "yes");
    ismapvariable = "false";
    excludepolicy = "include whole CPT";
}

node Survival3yr
{
    label = "Survival 3yr";
    position = (725 85);
    states = ("yes"  "no");
    ismapvariable = "false";
    excludepolicy = "include whole CPT";
}

node PR
{
    label = "Progesteron receptor";
    position = (693 599);
    states = ("positive"  "negative");
    ismapvariable = "false";
    excludepolicy = "include whole CPT";
}

node L1CAM
{
    label = "L1CAM";
    position = (485 602);
    states = ("negative"  "positive");
    ismapvariable = "false";
    excludepolicy = "include whole CPT";
}

node p53
{
    label = "p53";
    position = (276 603);
    states = ("wildtype"  "mutant");
    ismapvariable = "false";
    excludepolicy = "include whole CPT";
}

node Survival1yr
{
    label = "Survival 1yr";
    position = (393 75);
    states = ("yes"  "no");
    ismapvariable = "false";
    excludepolicy = "include whole CPT";
}

potential (Cytology |)
{
    data = (0.96330275 0.03669725);
}

potential (MyometrialInvasion |)
{
    data = (0.07601573 0.55176933 0.37221494);
}

potential (PrimaryTumor |)
{
    data = (0.58060290 0.23197900 0.18741810);
}

potential (Histology | Cytology MyometrialInvasion PrimaryTumor)
{
    data = ((((0.82222220 0.17777780 0.00000000)
        (0.14285710 0.85714290 0.00000000)
        (0.00000000 0.00000000 1.00000000))
        ((0.68217054 0.31007752 0.00775194)
        (0.26086957 0.65217391 0.08695652)
        (0.09836066 0.21311475 0.68852459))
        ((0.44274809 0.48091603 0.07633588)
        (0.17647058 0.61764704 0.20588238)
        (0.01470588 0.08823529 0.89705883)))
        (((1.00000000 0.00000000 0.00000000)
        (0.33333333 0.33333333 0.33333333)
        (0.33333333 0.33333333 0.33333333))
        ((0.00000000 0.50000000 0.50000000)
        (0.00000000 0.66666670 0.33333330)
        (0.00000000 0.33333330 0.66666670))
        ((0.25000000 0.50000000 0.25000000)
        (0.00000000 0.57142860 0.42857140)
        (0.00000000 0.00000000 1.00000000))));
}

potential (Therapy | Histology)
{
    data = ((0.64984227 0.33123028 0.00630915 0.01261830)
        (0.55709342 0.38754325 0.02076125 0.03460208)
        (0.31210191 0.42038217 0.19108280 0.07643312));
}

potential (LVSI | Cytology Histology Therapy)
{
    data = ((((0.96585366 0.03414634)
        (0.87500000 0.12500000)
        (0.00000000 1.00000000)
        (0.75000000 0.25000000))
        ((0.91194969 0.08805031)
        (0.89719630 0.10280370)
        (1.00000000 0.00000000)
        (0.42857140 0.57142860))
        ((0.66666670 0.33333330)
        (0.72580650 0.27419350)
        (0.33333330 0.66666670)
        (0.36363640 0.63636360)))
        (((1.00000000 0.00000000)
        (1.00000000 0.00000000)
        (0.50000000 0.50000000)
        (0.50000000 0.50000000))
        ((1.00000000 0.00000000)
        (0.60000000 0.40000000)
        (1.00000000 0.00000000)
        (0.00000000 1.00000000))
        ((0.14285710 0.85714290)
        (0.25000000 0.75000000)
        (0.00000000 1.00000000)
        (1.00000000 0.00000000))));
}

potential (LNM | Histology LVSI MyometrialInvasion Therapy)
{
    data = (((((1.00000000 0.00000000)
        (1.00000000 0.00000000)
        (0.50000000 0.50000000)
        (0.50000000 0.50000000))
        ((1.00000000 0.00000000)
        (1.00000000 0.00000000)
        (0.50000000 0.50000000)
        (1.00000000 0.00000000))
        ((1.00000000 0.00000000)
        (0.97297297 0.02702703)
        (0.50000000 0.50000000)
        (0.50000000 0.50000000)))
        (((0.50000000 0.50000000)
        (0.50000000 0.50000000)
        (0.50000000 0.50000000)
        (0.50000000 0.50000000))
        ((1.00000000 0.00000000)
        (1.00000000 0.00000000)
        (0.50000000 0.50000000)
        (0.00000000 1.00000000))
        ((0.50000000 0.50000000)
        (1.00000000 0.00000000)
        (1.00000000 0.00000000)
        (0.50000000 0.50000000))))
        ((((1.00000000 0.00000000)
        (1.00000000 0.00000000)
        (0.50000000 0.50000000)
        (0.50000000 0.50000000))
        ((1.00000000 0.00000000)
        (0.94736842 0.05263158)
        (0.33333330 0.66666670)
        (1.00000000 0.00000000))
        ((0.97297297 0.02702703)
        (0.95000000 0.05000000)
        (0.33333330 0.66666670)
        (1.00000000 0.00000000)))
        (((0.50000000 0.50000000)
        (0.50000000 0.50000000)
        (0.50000000 0.50000000)
        (0.50000000 0.50000000))
        ((0.66666670 0.33333330)
        (1.00000000 0.00000000)
        (0.50000000 0.50000000)
        (0.66666670 0.33333330))
        ((0.80000000 0.20000000)
        (0.50000000 0.50000000)
        (0.50000000 0.50000000)
        (0.75000000 0.25000000))))
        ((((1.00000000 0.00000000)
        (0.50000000 0.50000000)
        (0.50000000 0.50000000)
        (0.50000000 0.50000000))
        ((1.00000000 0.00000000)
        (1.00000000 0.00000000)
        (0.00000000 1.00000000)
        (1.00000000 0.00000000))
        ((1.00000000 0.00000000)
        (0.93103448 0.06896552)
        (0.60000000 0.40000000)
        (0.50000000 0.50000000)))
        (((1.00000000 0.00000000)
        (0.50000000 0.50000000)
        (0.50000000 0.50000000)
        (0.50000000 0.50000000))
        ((0.57142860 0.42857140)
        (1.00000000 0.00000000)
        (0.66666670 0.33333330)
        (1.00000000 0.00000000))
        ((0.00000000 1.00000000)
        (0.86666670 0.13333330)
        (0.06666667 0.93333333)
        (0.25000000 0.75000000)))));
}

potential (CA125 | LNM)
{
    data = ((0.87913670 0.12086330)
        (0.27941180 0.72058820));
}

potential (Recurrence | CA125 Histology LNM LVSI)
{
    data = (((((0.98127341 0.01872659 0.00000000)
        (1.00000000 0.00000000 0.00000000))
        ((1.00000000 0.00000000 0.00000000)
        (0.33333333 0.33333333 0.33333333)))
        (((0.90134529 0.08071749 0.01793722)
        (0.78947370 0.21052630 0.00000000))
        ((1.00000000 0.00000000 0.00000000)
        (1.00000000 0.00000000 0.00000000)))
        (((0.91935484 0.08064516 0.00000000)
        (0.53846150 0.46153850 0.00000000))
        ((0.20000000 0.40000000 0.40000000)
        (0.42857140 0.57142860 0.00000000))))
        ((((0.96153846 0.00000000 0.03846154)
        (0.25000000 0.75000000 0.00000000))
        ((0.33333333 0.33333333 0.33333333)
        (0.00000000 1.00000000 0.00000000)))
        (((0.77272727 0.18181818 0.04545455)
        (0.66666670 0.33333330 0.00000000))
        ((0.37500000 0.62500000 0.00000000)
        (0.80000000 0.00000000 0.20000000)))
        (((0.62500000 0.37500000 0.00000000)
        (0.66666670 0.33333330 0.00000000))
        ((0.33333330 0.50000000 0.16666670)
        (0.48275860 0.51724140 0.00000000)))));
}

potential (Survival5yr | Recurrence Therapy)
{
    data = (((0.99204244 0.00795756)
        (0.99600000 0.00400000)
        (1.00000000 0.00000000)
        (1.00000000 0.00000000))
        ((0.55882350 0.44117650)
        (0.50000000 0.50000000)
        (0.19047620 0.80952380)
        (0.55555560 0.44444440))
        ((0.60000000 0.40000000)
        (1.00000000 0.00000000)
        (0.00000000 1.00000000)
        (0.50000000 0.50000000)));
}

potential (Platelets | LNM)
{
    data = ((0.96978417 0.03021583)
        (0.94117647 0.05882353));
}

potential (ER | Histology LNM)
{
    data = (((0.96507937 0.03492063)
        (1.00000000 0.00000000))
        ((0.93333333 0.06666667)
        (0.94736842 0.05263158))
        ((0.72727270 0.27272730)
        (0.65957450 0.34042550)));
}

potential (CTMRI | CA125 LNM)
{
    data = (((0.98854337 0.01145663)
        (0.89473680 0.10526320))
        ((0.78571430 0.21428570)
        (0.77551020 0.22448980)));
}

potential (Survival3yr | Recurrence Therapy Survival5yr)
{
    data = ((((1.00000000 0.00000000)
        (1.00000000 0.00000000))
        ((1.00000000 0.00000000)
        (0.00000000 1.00000000))
        ((1.00000000 0.00000000)
        (0.50000000 0.50000000))
        ((1.00000000 0.00000000)
        (0.50000000 0.50000000)))
        (((1.00000000 0.00000000)
        (0.20000000 0.80000000))
        ((1.00000000 0.00000000)
        (0.26666670 0.73333330))
        ((1.00000000 0.00000000)
        (0.17647060 0.82352940))
        ((1.00000000 0.00000000)
        (0.25000000 0.75000000)))
        (((1.00000000 0.00000000)
        (1.00000000 0.00000000))
        ((1.00000000 0.00000000)
        (0.50000000 0.50000000))
        ((0.50000000 0.50000000)
        (0.00000000 1.00000000))
        ((0.50000000 0.50000000)
        (0.50000000 0.50000000))));
}

potential (PR | ER Histology LNM)
{
    data = ((((0.91447368 0.08552632)
        (1.00000000 0.00000000))
        ((0.90079365 0.09920635)
        (0.94444444 0.05555556))
        ((0.77500000 0.22500000)
        (0.80645160 0.19354840)))
        (((0.45454550 0.54545450)
        (0.50000000 0.50000000))
        ((0.22222220 0.77777780)
        (0.00000000 1.00000000))
        ((0.13333330 0.86666670)
        (0.06250000 0.93750000))));
}

potential (L1CAM | Histology LNM PR)
{
    data = ((((0.98939929 0.01060071)
        (0.81250000 0.18750000))
        ((1.00000000 0.00000000)
        (0.50000000 0.50000000)))
        (((0.95238095 0.04761905)
        (0.82051280 0.17948720))
        ((0.82352940 0.17647060)
        (0.50000000 0.50000000)))
        (((0.84848480 0.15151520)
        (0.52272730 0.47727270))
        ((0.76923080 0.23076920)
        (0.42857140 0.57142860))));
}

potential (p53 | Histology L1CAM LNM)
{
    data = ((((0.94771242 0.05228758)
        (0.50000000 0.50000000))
        ((0.88888890 0.11111110)
        (0.50000000 0.50000000)))
        (((0.90079365 0.09920635)
        (0.66666670 0.33333330))
        ((0.61111110 0.38888890)
        (0.50000000 0.50000000)))
        (((0.70886080 0.29113920)
        (0.82758620 0.17241380))
        ((0.29032260 0.70967740)
        (0.22222220 0.77777780))));
}

potential (Survival1yr | Recurrence Therapy Survival3yr Survival5yr)
{
    data = (((((1.00000000 0.00000000)
        (1.00000000 0.00000000))
        ((0.50000000 0.50000000)
        (0.50000000 0.50000000)))
        (((1.00000000 0.00000000)
        (0.50000000 0.50000000))
        ((0.50000000 0.50000000)
        (1.00000000 0.00000000)))
        (((1.00000000 0.00000000)
        (0.50000000 0.50000000))
        ((0.50000000 0.50000000)
        (0.50000000 0.50000000)))
        (((1.00000000 0.00000000)
        (0.50000000 0.50000000))
        ((0.50000000 0.50000000)
        (0.50000000 0.50000000))))
        ((((1.00000000 0.00000000)
        (1.00000000 0.00000000))
        ((0.50000000 0.50000000)
        (0.58333330 0.41666670)))
        (((1.00000000 0.00000000)
        (1.00000000 0.00000000))
        ((0.50000000 0.50000000)
        (0.54545450 0.45454550)))
        (((1.00000000 0.00000000)
        (1.00000000 0.00000000))
        ((0.50000000 0.50000000)
        (0.64285710 0.35714290)))
        (((1.00000000 0.00000000)
        (1.00000000 0.00000000))
        ((0.50000000 0.50000000)
        (0.66666670 0.33333330))))
        ((((1.00000000 0.00000000)
        (1.00000000 0.00000000))
        ((0.50000000 0.50000000)
        (0.50000000 0.50000000)))
        (((1.00000000 0.00000000)
        (0.50000000 0.50000000))
        ((0.50000000 0.50000000)
        (0.50000000 0.50000000)))
        (((0.50000000 0.50000000)
        (0.50000000 0.50000000))
        ((0.50000000 0.50000000)
        (1.00000000 0.00000000)))
        (((0.50000000 0.50000000)
        (0.50000000 0.50000000))
        ((0.50000000 0.50000000)
        (0.50000000 0.50000000)))));
}
